digraph Tree {
node [shape=box] ;
0 [label="X[5] <= 4.73\nmse = 99718.891\nsamples = 2512\nvalue = -89.26"] ;
1 [label="X[2] <= 11.65\nmse = 2.971\nsamples = 1312\nvalue = 5.673"] ;
0 -> 1 [labeldistance=2.5, labelangle=45, headlabel="True"] ;
2 [label="X[3] <= 2.85\nmse = 2.656\nsamples = 749\nvalue = 5.26"] ;
1 -> 2 ;
3 [label="X[5] <= 2.95\nmse = 2.081\nsamples = 317\nvalue = 4.801"] ;
2 -> 3 ;
4 [label="X[5] <= 1.25\nmse = 2.183\nsamples = 124\nvalue = 3.793"] ;
3 -> 4 ;
5 [label="X[6] <= 0.2\nmse = 1.368\nsamples = 18\nvalue = 1.633"] ;
4 -> 5 ;
6 [label="mse = 0.0\nsamples = 5\nvalue = 0.0"] ;
5 -> 6 ;
7 [label="mse = 0.473\nsamples = 13\nvalue = 2.262"] ;
5 -> 7 ;
8 [label="X[6] <= 2.15\nmse = 1.395\nsamples = 106\nvalue = 4.159"] ;
4 -> 8 ;
9 [label="mse = 0.439\nsamples = 74\nvalue = 3.591"] ;
8 -> 9 ;
10 [label="mse = 1.127\nsamples = 32\nvalue = 5.475"] ;
8 -> 10 ;
11 [label="X[6] <= 1.95\nmse = 0.943\nsamples = 193\nvalue = 5.449"] ;
3 -> 11 ;
12 [label="X[6] <= 1.35\nmse = 0.458\nsamples = 132\nvalue = 4.973"] ;
11 -> 12 ;
13 [label="mse = 0.367\nsamples = 69\nvalue = 4.61"] ;
12 -> 13 ;
14 [label="mse = 0.255\nsamples = 63\nvalue = 5.371"] ;
12 -> 14 ;
15 [label="X[5] <= 3.95\nmse = 0.441\nsamples = 61\nvalue = 6.479"] ;
11 -> 15 ;
16 [label="mse = 0.328\nsamples = 31\nvalue = 6.068"] ;
15 -> 16 ;
17 [label="mse = 0.203\nsamples = 30\nvalue = 6.903"] ;
15 -> 17 ;
18 [label="X[5] <= 2.95\nmse = 2.81\nsamples = 432\nvalue = 5.597"] ;
2 -> 18 ;
19 [label="X[2] <= 8.05\nmse = 2.301\nsamples = 160\nvalue = 4.399"] ;
18 -> 19 ;
20 [label="X[6] <= 0.9\nmse = 1.69\nsamples = 2\nvalue = 1.3"] ;
19 -> 20 ;
21 [label="mse = 0.0\nsamples = 1\nvalue = 0.0"] ;
20 -> 21 ;
22 [label="mse = 0.0\nsamples = 1\nvalue = 2.6"] ;
20 -> 22 ;
23 [label="X[6] <= 1.95\nmse = 2.186\nsamples = 158\nvalue = 4.438"] ;
19 -> 23 ;
24 [label="mse = 1.022\nsamples = 68\nvalue = 3.262"] ;
23 -> 24 ;
25 [label="mse = 1.23\nsamples = 90\nvalue = 5.327"] ;
23 -> 25 ;
26 [label="X[6] <= 2.65\nmse = 1.767\nsamples = 272\nvalue = 6.302"] ;
18 -> 26 ;
27 [label="X[6] <= 1.25\nmse = 0.818\nsamples = 160\nvalue = 5.492"] ;
26 -> 27 ;
28 [label="mse = 0.505\nsamples = 43\nvalue = 4.419"] ;
27 -> 28 ;
29 [label="mse = 0.354\nsamples = 117\nvalue = 5.886"] ;
27 -> 29 ;
30 [label="X[5] <= 4.05\nmse = 0.845\nsamples = 112\nvalue = 7.46"] ;
26 -> 30 ;
31 [label="mse = 0.587\nsamples = 63\nvalue = 7.081"] ;
30 -> 31 ;
32 [label="mse = 0.754\nsamples = 49\nvalue = 7.947"] ;
30 -> 32 ;
33 [label="X[12] <= 8.65\nmse = 2.862\nsamples = 563\nvalue = 6.223"] ;
1 -> 33 ;
34 [label="X[3] <= 8.7\nmse = 2.713\nsamples = 363\nvalue = 5.938"] ;
33 -> 34 ;
35 [label="X[11] <= 22.05\nmse = 2.508\nsamples = 327\nvalue = 6.055"] ;
34 -> 35 ;
36 [label="X[6] <= 1.85\nmse = 1.941\nsamples = 94\nvalue = 5.545"] ;
35 -> 36 ;
37 [label="mse = 1.368\nsamples = 38\nvalue = 4.524"] ;
36 -> 37 ;
38 [label="mse = 1.143\nsamples = 56\nvalue = 6.238"] ;
36 -> 38 ;
39 [label="X[3] <= 6.75\nmse = 2.589\nsamples = 233\nvalue = 6.261"] ;
35 -> 39 ;
40 [label="mse = 1.969\nsamples = 190\nvalue = 6.055"] ;
39 -> 40 ;
41 [label="mse = 4.311\nsamples = 43\nvalue = 7.172"] ;
39 -> 41 ;
42 [label="X[6] <= 2.45\nmse = 3.312\nsamples = 36\nvalue = 4.869"] ;
34 -> 42 ;
43 [label="X[5] <= 2.55\nmse = 1.705\nsamples = 23\nvalue = 3.917"] ;
42 -> 43 ;
44 [label="mse = 1.094\nsamples = 10\nvalue = 2.87"] ;
43 -> 44 ;
45 [label="mse = 0.682\nsamples = 13\nvalue = 4.723"] ;
43 -> 45 ;
46 [label="X[5] <= 2.75\nmse = 1.713\nsamples = 13\nvalue = 6.554"] ;
42 -> 46 ;
47 [label="mse = 1.207\nsamples = 4\nvalue = 5.225"] ;
46 -> 47 ;
48 [label="mse = 0.805\nsamples = 9\nvalue = 7.144"] ;
46 -> 48 ;
49 [label="X[5] <= 3.35\nmse = 2.715\nsamples = 200\nvalue = 6.741"] ;
33 -> 49 ;
50 [label="X[5] <= 1.45\nmse = 2.406\nsamples = 70\nvalue = 5.591"] ;
49 -> 50 ;
51 [label="X[6] <= 3.05\nmse = 0.686\nsamples = 5\nvalue = 2.58"] ;
50 -> 51 ;
52 [label="mse = 0.227\nsamples = 4\nvalue = 2.225"] ;
51 -> 52 ;
53 [label="mse = 0.0\nsamples = 1\nvalue = 4.0"] ;
51 -> 53 ;
54 [label="X[6] <= 3.35\nmse = 1.787\nsamples = 65\nvalue = 5.823"] ;
50 -> 54 ;
55 [label="mse = 0.89\nsamples = 42\nvalue = 5.095"] ;
54 -> 55 ;
56 [label="mse = 0.69\nsamples = 23\nvalue = 7.152"] ;
54 -> 56 ;
57 [label="X[6] <= 3.55\nmse = 1.787\nsamples = 130\nvalue = 7.36"] ;
49 -> 57 ;
58 [label="X[6] <= 2.35\nmse = 0.648\nsamples = 84\nvalue = 6.595"] ;
57 -> 58 ;
59 [label="mse = 0.342\nsamples = 35\nvalue = 5.897"] ;
58 -> 59 ;
60 [label="mse = 0.27\nsamples = 49\nvalue = 7.094"] ;
58 -> 60 ;
61 [label="X[6] <= 5.35\nmse = 0.849\nsamples = 46\nvalue = 8.757"] ;
57 -> 61 ;
62 [label="mse = 0.318\nsamples = 38\nvalue = 8.429"] ;
61 -> 62 ;
63 [label="mse = 0.439\nsamples = 8\nvalue = 10.313"] ;
61 -> 63 ;
64 [label="X[7] <= 207.5\nmse = 188115.02\nsamples = 1200\nvalue = -193.054"] ;
0 -> 64 [labeldistance=2.5, labelangle=-45, headlabel="False"] ;
65 [label="X[7] <= 135.0\nmse = 113302.928\nsamples = 201\nvalue = -999.209"] ;
64 -> 65 ;
66 [label="X[6] <= 6.405\nmse = 35789.74\nsamples = 138\nvalue = -1078.414"] ;
65 -> 66 ;
67 [label="X[9] <= 35.3\nmse = 27205.847\nsamples = 137\nvalue = -1086.42"] ;
66 -> 67 ;
68 [label="X[2] <= 15.95\nmse = 18394.124\nsamples = 136\nvalue = -1094.531"] ;
67 -> 68 ;
69 [label="mse = 9548.347\nsamples = 131\nvalue = -1102.53"] ;
68 -> 69 ;
70 [label="mse = 204557.198\nsamples = 5\nvalue = -884.96"] ;
68 -> 70 ;
71 [label="mse = 0.0\nsamples = 1\nvalue = 16.6"] ;
67 -> 71 ;
72 [label="mse = -0.0\nsamples = 1\nvalue = 18.4"] ;
66 -> 72 ;
73 [label="X[5] <= 5.03\nmse = 239250.781\nsamples = 63\nvalue = -825.713"] ;
65 -> 73 ;
74 [label="X[8] <= 3.0\nmse = 143104.436\nsamples = 54\nvalue = -965.109"] ;
73 -> 74 ;
75 [label="X[1] <= 6.15\nmse = 0.722\nsamples = 2\nvalue = 12.65"] ;
74 -> 75 ;
76 [label="mse = 0.0\nsamples = 1\nvalue = 11.8"] ;
75 -> 76 ;
77 [label="mse = 0.0\nsamples = 1\nvalue = 13.5"] ;
75 -> 77 ;
78 [label="X[6] <= 7.655\nmse = 110424.467\nsamples = 52\nvalue = -1002.715"] ;
74 -> 78 ;
79 [label="mse = 71427.815\nsamples = 50\nvalue = -1043.578"] ;
78 -> 79 ;
80 [label="mse = 1.103\nsamples = 2\nvalue = 18.85"] ;
78 -> 80 ;
81 [label="X[7] <= 156.0\nmse = 10.0\nsamples = 9\nvalue = 10.667"] ;
73 -> 81 ;
82 [label="X[2] <= 15.65\nmse = 0.549\nsamples = 3\nvalue = 13.833"] ;
81 -> 82 ;
83 [label="mse = 0.023\nsamples = 2\nvalue = 14.35"] ;
82 -> 83 ;
84 [label="mse = 0.0\nsamples = 1\nvalue = 12.8"] ;
82 -> 84 ;
85 [label="X[5] <= 7.3\nmse = 7.205\nsamples = 6\nvalue = 9.083"] ;
81 -> 85 ;
86 [label="mse = 0.367\nsamples = 4\nvalue = 7.225"] ;
85 -> 86 ;
87 [label="mse = 0.16\nsamples = 2\nvalue = 12.8"] ;
85 -> 87 ;
88 [label="X[2] <= 9.55\nmse = 46100.481\nsamples = 999\nvalue = -30.854"] ;
64 -> 88 ;
89 [label="X[5] <= 4.78\nmse = 183105.361\nsamples = 90\nvalue = -190.854"] ;
88 -> 89 ;
90 [label="X[12] <= 3.25\nmse = 167515.69\nsamples = 19\nvalue = -933.874"] ;
89 -> 90 ;
91 [label="mse = 0.0\nsamples = 1\nvalue = 10.1"] ;
90 -> 91 ;
92 [label="X[3] <= 2.15\nmse = 124567.056\nsamples = 18\nvalue = -986.317"] ;
90 -> 92 ;
93 [label="mse = 280275.886\nsamples = 6\nvalue = -736.75"] ;
92 -> 93 ;
94 [label="mse = -0.0\nsamples = 12\nvalue = -1111.1"] ;
92 -> 94 ;
95 [label="X[6] <= 2.35\nmse = 2.363\nsamples = 71\nvalue = 7.982"] ;
89 -> 95 ;
96 [label="X[5] <= 6.35\nmse = 1.616\nsamples = 46\nvalue = 7.3"] ;
95 -> 96 ;
97 [label="mse = 0.611\nsamples = 32\nvalue = 6.694"] ;
96 -> 97 ;
98 [label="mse = 1.153\nsamples = 14\nvalue = 8.686"] ;
96 -> 98 ;
99 [label="X[5] <= 7.05\nmse = 1.309\nsamples = 25\nvalue = 9.236"] ;
95 -> 99 ;
100 [label="mse = 0.36\nsamples = 22\nvalue = 8.877"] ;
99 -> 100 ;
101 [label="mse = 0.402\nsamples = 3\nvalue = 11.867"] ;
99 -> 101 ;
102 [label="X[5] <= 4.78\nmse = 29750.015\nsamples = 909\nvalue = -15.012"] ;
88 -> 102 ;
103 [label="X[10] <= 16.7\nmse = 175985.046\nsamples = 21\nvalue = -1057.052"] ;
102 -> 103 ;
104 [label="mse = 0.0\nsamples = 1\nvalue = -2222.2"] ;
103 -> 104 ;
105 [label="X[4] <= 2.3\nmse = 113511.927\nsamples = 20\nvalue = -998.795"] ;
103 -> 105 ;
106 [label="mse = -0.0\nsamples = 15\nvalue = -1111.1"] ;
105 -> 106 ;
107 [label="mse = 302698.754\nsamples = 5\nvalue = -661.88"] ;
105 -> 107 ;
108 [label="X[6] <= 3.15\nmse = 5.659\nsamples = 888\nvalue = 9.631"] ;
102 -> 108 ;
109 [label="X[6] <= 2.15\nmse = 3.289\nsamples = 542\nvalue = 8.547"] ;
108 -> 109 ;
110 [label="mse = 1.894\nsamples = 259\nvalue = 7.706"] ;
109 -> 110 ;
111 [label="mse = 3.325\nsamples = 283\nvalue = 9.317"] ;
109 -> 111 ;
112 [label="X[6] <= 4.45\nmse = 4.653\nsamples = 346\nvalue = 11.327"] ;
108 -> 112 ;
113 [label="mse = 3.021\nsamples = 240\nvalue = 10.607"] ;
112 -> 113 ;
114 [label="mse = 4.511\nsamples = 106\nvalue = 12.958"] ;
112 -> 114 ;
}